2.539283335208892822e-01,1.365827023983001709e-01,1.271174252033233643e-01,-2.848844826221466064e-01,3.004825711250305176e-01,-3.082785606384277344e-01,1.541010141372680664e-01,8.940083533525466919e-02,-2.276183068752288818e-01,-3.260963559150695801e-01
3.584026694297790527e-01,4.430957734584808350e-01,3.204741775989532471e-01,-4.237931072711944580e-01,3.192637860774993896e-01,-2.941374480724334717e-01,4.385352432727813721e-01,3.163058459758758545e-01,-4.336001873016357422e-01,-4.513097107410430908e-01
4.496127739548683167e-02,-1.085970178246498108e-01,-5.327471718192100525e-02,2.942497283220291138e-02,-1.102370098233222961e-01,7.617708761245012283e-03,-6.434301286935806274e-02,-1.421184539794921875e-01,1.570489704608917236e-01,-3.251605201512575150e-03
3.108925651758909225e-03,3.274917230010032654e-02,-8.859188854694366455e-02,7.577301561832427979e-02,4.932961985468864441e-02,-4.314001649618148804e-03,-3.354587825015187263e-03,4.756045341491699219e-02,3.580167889595031738e-02,3.380858898162841797e-02
-6.695847511291503906e-01,-4.706588089466094971e-01,-5.413604974746704102e-01,4.480022788047790527e-01,-6.108496785163879395e-01,6.867610216140747070e-01,-5.417078137397766113e-01,-4.410530924797058105e-01,6.907649040222167969e-01,4.769507646560668945e-01
-1.141327098011970520e-01,-1.821751892566680908e-01,-1.352762728929519653e-01,1.715015321969985962e-01,-1.468296647071838379e-01,8.942289650440216064e-02,-8.944432437419891357e-02,-1.892273724079132080e-01,3.037070035934448242e-01,9.383144974708557129e-02
-7.819229364395141602e-02,-1.451763659715652466e-01,-1.351375728845596313e-01,2.211755365133285522e-01,-1.854491531848907471e-01,2.274779975414276123e-01,-1.219051852822303772e-01,-1.896078437566757202e-01,2.769680619239807129e-01,2.481105029582977295e-01
3.517076671123504639e-01,4.509238898754119873e-01,4.544004797935485840e-01,-3.538452684879302979e-01,4.235393106937408447e-01,-3.529958426952362061e-01,3.254973888397216797e-01,4.259439110755920410e-01,-3.491122126579284668e-01,-5.209439992904663086e-01
2.188998758792877197e-01,7.847022265195846558e-02,1.366173028945922852e-01,-4.776653647422790527e-02,-3.520431369543075562e-02,-1.308892369270324707e-01,1.605019718408584595e-01,5.733006447553634644e-02,-4.789797589182853699e-02,-1.489807963371276855e-01
1.076973602175712585e-01,-1.219609230756759644e-01,-3.089449554681777954e-02,1.175652369856834412e-01,-8.988096565008163452e-02,9.195883572101593018e-02,-5.333440843969583511e-03,-8.339458703994750977e-02,4.112976416945457458e-02,5.509035661816596985e-03
7.530906796455383301e-01,5.976883769035339355e-01,5.539811253547668457e-01,-7.228161692619323730e-01,6.873865127563476562e-01,-5.455878376960754395e-01,6.023560762405395508e-01,7.290620803833007812e-01,-5.269374251365661621e-01,-7.037954926490783691e-01
-7.287758588790893555e-01,-7.058334946632385254e-01,-7.225040793418884277e-01,5.760792493820190430e-01,-6.688076853752136230e-01,7.377112507820129395e-01,-6.303232312202453613e-01,-5.854799747467041016e-01,6.818849444389343262e-01,7.868490219116210938e-01
-2.936592996120452881e-01,-1.758908331394195557e-01,-2.371603697538375854e-01,3.070838451385498047e-01,-3.219171464443206787e-01,2.904768288135528564e-01,-2.727848291397094727e-01,-1.924931257963180542e-01,2.897032499313354492e-01,2.156306207180023193e-01
-7.566595077514648438e-02,1.765918359160423279e-02,-1.277799159288406372e-01,1.269070804119110107e-01,-6.846452504396438599e-02,6.209737807512283325e-02,-4.580225422978401184e-02,-5.518623068928718567e-02,3.488855063915252686e-02,1.336905062198638916e-01
-2.197410464286804199e-01,-3.216315209865570068e-01,-3.922371566295623779e-01,2.700382173061370850e-01,-2.984436750411987305e-01,2.699327468872070312e-01,-3.291492164134979248e-01,-2.006878554821014404e-01,3.283232450485229492e-01,2.982260882854461670e-01
4.868434071540832520e-01,3.396246135234832764e-01,3.322036266326904297e-01,-2.339083105325698853e-01,3.694024682044982910e-01,-2.950257062911987305e-01,3.990157544612884521e-01,2.924613952636718750e-01,-4.075256288051605225e-01,-2.581525146961212158e-01
-4.467347264289855957e-01,-4.020116031169891357e-01,-3.662488460540771484e-01,3.373150229454040527e-01,-2.748131752014160156e-01,3.725199699401855469e-01,-2.718781530857086182e-01,-4.203162491321563721e-01,2.737736999988555908e-01,3.566986620426177979e-01
-3.707736730575561523e-01,-3.554522991180419922e-01,-3.606847822666168213e-01,4.424130022525787354e-01,-3.575273454189300537e-01,2.229198962450027466e-01,-3.670386075973510742e-01,-3.254878222942352295e-01,5.187972784042358398e-01,4.753472506999969482e-01
3.120546340942382812e-01,2.430886924266815186e-01,2.607002556324005127e-01,-3.218180537223815918e-01,2.339730113744735718e-01,-1.773786395788192749e-01,1.341689974069595337e-01,2.258955538272857666e-01,-3.056786060333251953e-01,-2.820006310939788818e-01
1.079553291201591492e-01,4.297077283263206482e-02,9.645428508520126343e-02,-1.331924796104431152e-01,1.156329438090324402e-01,-3.012005053460597992e-02,1.079792901873588562e-01,1.134976893663406372e-01,-1.580998003482818604e-01,-1.892824023962020874e-01
-3.078025579452514648e-01,-1.805670261383056641e-01,-3.597202003002166748e-01,3.177826702594757080e-01,-3.450515866279602051e-01,3.292809128761291504e-01,-2.670573890209197998e-01,-8.022642880678176880e-02,2.161913067102432251e-01,1.002062857151031494e-01
1.552850753068923950e-01,2.823954522609710693e-01,2.683667242527008057e-01,-1.796338558197021484e-01,3.754698336124420166e-01,-1.131674796342849731e-01,2.131837606430053711e-01,2.592413425445556641e-01,-1.287841796875000000e-01,-1.997151821851730347e-01
-1.984077453613281250e+00,-1.644440174102783203e+00,-1.682541608810424805e+00,1.933557868003845215e+00,-1.821519255638122559e+00,1.838030338287353516e+00,-1.698811054229736328e+00,-1.552285552024841309e+00,1.790368199348449707e+00,1.838822126388549805e+00
1.473287105560302734e+00,1.554760217666625977e+00,1.503390550613403320e+00,-1.571277260780334473e+00,1.628325581550598145e+00,-1.419049859046936035e+00,1.409636497497558594e+00,1.344151496887207031e+00,-1.487468957901000977e+00,-1.632343411445617676e+00
1.642242431640625000e+00,1.291403412818908691e+00,1.443566560745239258e+00,-1.627521157264709473e+00,1.957293391227722168e+00,-1.572873830795288086e+00,1.455163836479187012e+00,1.288999915122985840e+00,-1.535705208778381348e+00,-1.436789035797119141e+00
-1.934640288352966309e+00,-1.660618543624877930e+00,-1.760651707649230957e+00,1.984114050865173340e+00,-1.842970609664916992e+00,1.735719799995422363e+00,-1.598470211029052734e+00,-1.415009260177612305e+00,1.782242417335510254e+00,1.775266766548156738e+00
4.283585846424102783e-01,4.024484753608703613e-01,5.420222282409667969e-01,-3.009611964225769043e-01,3.718757331371307373e-01,-4.479627013206481934e-01,2.973718047142028809e-01,3.849123418331146240e-01,-3.811423182487487793e-01,-2.871222496032714844e-01
-1.223523616790771484e+00,-1.228068590164184570e+00,-1.159771800041198730e+00,1.249608874320983887e+00,-1.126590847969055176e+00,1.165950179100036621e+00,-1.054919600486755371e+00,-9.845630526542663574e-01,1.250836372375488281e+00,1.047934293746948242e+00
1.328541636466979980e+00,1.419320821762084961e+00,1.377763748168945312e+00,-1.425446987152099609e+00,1.615102529525756836e+00,-1.389618754386901855e+00,1.432294249534606934e+00,1.343048572540283203e+00,-1.447292447090148926e+00,-1.521789789199829102e+00
1.308762788772583008e+00,1.015190601348876953e+00,1.266766667366027832e+00,-1.327326655387878418e+00,1.582807421684265137e+00,-1.101238012313842773e+00,1.003985643386840820e+00,9.347356557846069336e-01,-1.108175873756408691e+00,-9.898364543914794922e-01
1.430300712585449219e+00,1.049527883529663086e+00,1.138113856315612793e+00,-1.435868978500366211e+00,1.598803162574768066e+00,-1.043283343315124512e+00,8.511920571327209473e-01,9.050982594490051270e-01,-1.139832019805908203e+00,-1.132294774055480957e+00
-1.168887391686439514e-01,-6.904470175504684448e-02,-9.344563633203506470e-02,2.645687460899353027e-01,-9.874236583709716797e-02,2.825483977794647217e-01,-3.117185235023498535e-01,-1.286810040473937988e-01,2.084103673696517944e-01,3.394117653369903564e-01
-9.244095534086227417e-02,1.791133731603622437e-01,2.020357102155685425e-01,-1.048545762896537781e-01,3.983410820364952087e-02,-7.478594779968261719e-02,5.260159820318222046e-02,-1.023022830486297607e-01,7.297447323799133301e-02,2.952723763883113861e-02
4.176468849182128906e-01,4.179022312164306641e-01,4.135811924934387207e-01,-4.986813068389892578e-01,3.621548116207122803e-01,-4.276172816753387451e-01,4.432711601257324219e-01,4.423523545265197754e-01,-4.262538254261016846e-01,-4.108149707317352295e-01
-5.375152826309204102e-01,-5.904963612556457520e-01,-4.976612329483032227e-01,5.780326724052429199e-01,-5.014576315879821777e-01,5.695745944976806641e-01,-4.886150062084197998e-01,-3.893977701663970947e-01,6.206683516502380371e-01,6.184144020080566406e-01
-7.960168123245239258e-01,-5.896293520927429199e-01,-7.642019987106323242e-01,8.264619112014770508e-01,-8.153865337371826172e-01,6.906761527061462402e-01,-6.265566349029541016e-01,-7.998304367065429688e-01,7.296169400215148926e-01,7.122472524642944336e-01
6.621434688568115234e-01,8.321607112884521484e-01,6.854428648948669434e-01,-6.499052643775939941e-01,8.487573266029357910e-01,-7.524863481521606445e-01,8.918976783752441406e-01,6.432433724403381348e-01,-8.272678852081298828e-01,-6.324244737625122070e-01
1.701247334480285645e+00,1.169065237045288086e+00,1.226470470428466797e+00,-1.753406167030334473e+00,1.920478582382202148e+00,-1.328386902809143066e+00,1.345020771026611328e+00,1.194699764251708984e+00,-1.443554639816284180e+00,-1.143275022506713867e+00
-5.448765158653259277e-01,-5.659941434860229492e-01,-5.011847615242004395e-01,7.499620318412780762e-01,-6.348461508750915527e-01,7.039631009101867676e-01,-4.652757942676544189e-01,-4.092868566513061523e-01,4.585897922515869141e-01,5.401412248611450195e-01
-3.413408622145652771e-02,-9.217038750648498535e-02,-7.998198270797729492e-02,3.762083128094673157e-02,-1.947325617074966431e-01,5.485798045992851257e-02,-1.340433061122894287e-01,-9.924654662609100342e-02,1.313580665737390518e-02,7.018101960420608521e-02
3.907455876469612122e-02,-8.641280978918075562e-02,-6.000488251447677612e-02,1.375120729207992554e-01,-1.432061754167079926e-02,4.568249359726905823e-02,-2.222529351711273193e-01,3.400694206357002258e-02,1.283745467662811279e-01,9.584924578666687012e-02
-3.267582654953002930e-01,-2.625703513622283936e-01,-3.419038355350494385e-01,3.734912872314453125e-01,-3.198778033256530762e-01,3.379750847816467285e-01,-3.726640045642852783e-01,-3.005194067955017090e-01,2.720505595207214355e-01,4.182105362415313721e-01
-1.960101425647735596e-01,-2.007585465908050537e-01,-2.950928509235382080e-01,2.374848723411560059e-01,-3.218281269073486328e-01,2.250886410474777222e-01,-1.577433794736862183e-01,-2.418599277734756470e-01,2.293656468391418457e-01,2.317236214876174927e-01
-2.684746682643890381e-01,-2.367504686117172241e-01,-2.975030839443206787e-01,2.252688407897949219e-01,-3.060953915119171143e-01,2.600775361061096191e-01,-3.672596812248229980e-01,-3.806762993335723877e-01,2.853653728961944580e-01,2.068227827548980713e-01
-2.214908897876739502e-01,-1.252563297748565674e-01,-3.269976079463958740e-01,3.172371983528137207e-01,-2.805234789848327637e-01,2.244808971881866455e-01,-1.876798570156097412e-01,-2.292840629816055298e-01,2.163223475217819214e-01,2.401702255010604858e-01
4.683369398117065430e-01,4.161191284656524658e-01,4.258403778076171875e-01,-5.089589357376098633e-01,5.075381994247436523e-01,-4.489917159080505371e-01,4.667190015316009521e-01,5.208479762077331543e-01,-5.218924283981323242e-01,-4.198352992534637451e-01
-1.106182932853698730e-01,-2.586495876312255859e-01,-2.319631278514862061e-01,2.313136756420135498e-01,-1.918887645006179810e-01,1.640316247940063477e-01,-1.566165089607238770e-01,-1.133830025792121887e-01,1.930948644876480103e-01,1.398370712995529175e-01
-8.221134543418884277e-02,2.611411735415458679e-02,-1.535802483558654785e-01,5.233304947614669800e-02,-4.698662087321281433e-02,1.557162851095199585e-01,-9.832272678613662720e-02,-3.870892152190208435e-02,6.499486416578292847e-02,8.114743977785110474e-02
4.888859391212463379e-02,1.912838071584701538e-01,1.775159984827041626e-01,-1.907420307397842407e-01,2.745945155620574951e-01,-1.075914055109024048e-01,1.933311522006988525e-01,1.410018205642700195e-01,-8.092513680458068848e-02,-1.885201483964920044e-01
1.215897202491760254e-01,1.746981292963027954e-01,2.742573320865631104e-01,-2.858239710330963135e-01,2.625916302204132080e-01,-2.080882340669631958e-01,2.897420227527618408e-01,1.380658596754074097e-01,-4.049011766910552979e-01,-2.428668141365051270e-01
-6.147684454917907715e-01,-3.700365722179412842e-01,-3.887510895729064941e-01,3.932136595249176025e-01,-5.133223533630371094e-01,4.087557196617126465e-01,-2.697164118289947510e-01,-3.721602857112884521e-01,2.404691725969314575e-01,3.819084763526916504e-01
-2.493763864040374756e-01,-2.607607245445251465e-01,-2.744209468364715576e-01,4.376907050609588623e-01,-2.344330847263336182e-01,3.457379937171936035e-01,-2.512325346469879150e-01,-4.344825744628906250e-01,1.450073719024658203e-01,2.483363747596740723e-01
6.648777127265930176e-01,5.524744987487792969e-01,5.984833836555480957e-01,-4.922940731048583984e-01,6.123627424240112305e-01,-5.340610742568969727e-01,4.929062426090240479e-01,4.204130172729492188e-01,-7.205041050910949707e-01,-5.295077562332153320e-01
-6.695840358734130859e-01,-6.693775057792663574e-01,-6.985660791397094727e-01,7.678253054618835449e-01,-7.092040777206420898e-01,5.987655520439147949e-01,-6.683932542800903320e-01,-6.264696121215820312e-01,7.499074339866638184e-01,7.654008865356445312e-01
-3.903743028640747070e-01,-2.964945435523986816e-01,-2.508475780487060547e-01,4.994448721408843994e-01,-3.453686833381652832e-01,3.547907173633575439e-01,-3.088673353195190430e-01,-4.857425093650817871e-01,2.717510461807250977e-01,3.894742131233215332e-01
-9.265313148498535156e-01,-7.855676412582397461e-01,-8.873813748359680176e-01,1.066898107528686523e+00,-1.066127419471740723e+00,9.695166349411010742e-01,-8.889670372009277344e-01,-7.590906620025634766e-01,9.068499207496643066e-01,8.689492940902709961e-01
-4.101694822311401367e-01,-4.640949666500091553e-01,-3.153586685657501221e-01,3.816012442111968994e-01,-4.231612384319305420e-01,4.143099486827850342e-01,-3.650343120098114014e-01,-4.574213624000549316e-01,3.018413484096527100e-01,2.880367934703826904e-01
7.621167302131652832e-01,6.712067723274230957e-01,8.112731575965881348e-01,-9.202221632003784180e-01,7.508288621902465820e-01,-8.257117867469787598e-01,6.056050062179565430e-01,7.742119431495666504e-01,-7.407535314559936523e-01,-6.542986631393432617e-01
-2.180082499980926514e-01,-2.811338901519775391e-01,-2.765319943428039551e-01,2.363034635782241821e-01,-4.209830760955810547e-01,2.501156628131866455e-01,-4.196890890598297119e-01,-2.079501599073410034e-01,2.404914051294326782e-01,3.044915199279785156e-01
1.814919561147689819e-01,5.432396382093429565e-02,1.634270697832107544e-01,-6.817071884870529175e-02,8.336845785379409790e-02,-1.870890408754348755e-01,-2.388899028301239014e-02,3.172152489423751831e-02,-3.677025437355041504e-02,-3.360654413700103760e-02
-7.402504086494445801e-01,-5.805114507675170898e-01,-5.662375092506408691e-01,6.091364622116088867e-01,-7.240144014358520508e-01,5.782606601715087891e-01,-5.532943010330200195e-01,-4.133380949497222900e-01,6.322825551033020020e-01,5.479894280433654785e-01
-1.650048941373825073e-01,-1.175398454070091248e-01,-2.086380869150161743e-02,3.906824812293052673e-02,-8.537003397941589355e-02,5.763625726103782654e-02,1.308675110340118408e-02,-1.947263814508914948e-02,1.597510725259780884e-01,-8.109896443784236908e-03
-2.111248672008514404e-01,-2.245575636625289917e-01,-2.337632328271865845e-01,3.795645013451576233e-02,-1.250090003013610840e-01,1.040577068924903870e-01,-2.206974774599075317e-01,-1.296235024929046631e-01,4.796844720840454102e-02,3.149020299315452576e-02
7.229611873626708984e-01,6.044138669967651367e-01,7.548118829727172852e-01,-7.716606259346008301e-01,8.201828598976135254e-01,-7.990741133689880371e-01,7.251494526863098145e-01,7.728805541992187500e-01,-6.487507820129394531e-01,-7.021720409393310547e-01
4.237217605113983154e-01,4.079059362411499023e-01,5.571308732032775879e-01,-4.690240919589996338e-01,4.032928645610809326e-01,-4.003154039382934570e-01,3.617823421955108643e-01,3.256452977657318115e-01,-4.681846797466278076e-01,-3.849078416824340820e-01
3.388946950435638428e-01,3.360249996185302734e-01,4.161106646060943604e-01,-3.462128043174743652e-01,6.073272824287414551e-01,-5.027014613151550293e-01,3.157950043678283691e-01,3.775735497474670410e-01,-5.274808406829833984e-01,-3.286453783512115479e-01
-3.982039391994476318e-01,-4.831103682518005371e-01,-4.866356849670410156e-01,5.620179176330566406e-01,-4.886111617088317871e-01,4.981170296669006348e-01,-4.697290360927581787e-01,-3.403175175189971924e-01,5.328491330146789551e-01,5.423769354820251465e-01
-8.439892530441284180e-01,-6.135954856872558594e-01,-7.645865678787231445e-01,9.635142683982849121e-01,-9.190550446510314941e-01,7.562094926834106445e-01,-8.865411877632141113e-01,-7.666963934898376465e-01,8.278571367263793945e-01,9.059388041496276855e-01
7.066117972135543823e-02,1.124539002776145935e-01,-1.580491103231906891e-02,7.986750453710556030e-02,-5.293407011777162552e-03,1.683601886034011841e-01,9.907893091440200806e-02,6.111010909080505371e-02,1.038464717566967010e-02,4.250720888376235962e-02
-5.597757101058959961e-01,-4.322590529918670654e-01,-3.529717922210693359e-01,4.919891059398651123e-01,-5.155600309371948242e-01,3.150455355644226074e-01,-5.274250507354736328e-01,-3.341223299503326416e-01,6.023408174514770508e-01,6.299297213554382324e-01
-1.516872793436050415e-01,1.159378699958324432e-02,-5.666807293891906738e-02,2.811182737350463867e-01,-1.696833372116088867e-01,1.168279126286506653e-01,-1.326956599950790405e-01,9.752136655151844025e-03,2.181836962699890137e-01,8.074953407049179077e-02
1.866197027266025543e-02,9.545761346817016602e-02,-1.525444444268941879e-02,8.178059011697769165e-02,2.576368115842342377e-02,-3.948877379298210144e-02,-7.843194901943206787e-02,6.865673512220382690e-02,1.271072477102279663e-01,-9.090113453567028046e-04
5.706132054328918457e-01,4.863947033882141113e-01,4.789911508560180664e-01,-4.488214254379272461e-01,3.356597423553466797e-01,-4.058538079261779785e-01,3.893184959888458252e-01,3.873831331729888916e-01,-4.618705511093139648e-01,-5.265921354293823242e-01
6.314761638641357422e-01,4.148390293121337891e-01,4.687273800373077393e-01,-5.167691707611083984e-01,6.920228600502014160e-01,-5.500147342681884766e-01,3.916022181510925293e-01,4.110120832920074463e-01,-3.726796805858612061e-01,-4.103716611862182617e-01
5.483235716819763184e-01,3.616382479667663574e-01,3.602704703807830811e-01,-4.083701074123382568e-01,3.723814785480499268e-01,-4.183438122272491455e-01,2.885069847106933594e-01,2.210839390754699707e-01,-5.255154967308044434e-01,-5.420433282852172852e-01
-5.179911255836486816e-01,-6.164178848266601562e-01,-3.746252954006195068e-01,7.624530792236328125e-01,-4.476607143878936768e-01,3.828483521938323975e-01,-5.512565374374389648e-01,-3.812066912651062012e-01,5.200770497322082520e-01,3.955071270465850830e-01
-9.916245341300964355e-01,-6.390305161476135254e-01,-6.667244434356689453e-01,9.276379942893981934e-01,-7.906207442283630371e-01,9.485036134719848633e-01,-6.354250311851501465e-01,-5.665904283523559570e-01,6.628617644309997559e-01,7.676287293434143066e-01
-1.174064204096794128e-01,-2.497916817665100098e-01,-1.360587179660797119e-01,1.767289042472839355e-01,-1.866517513990402222e-01,2.926825284957885742e-01,-1.632924079895019531e-01,-2.801181375980377197e-01,2.264403998851776123e-01,3.284597396850585938e-01
-4.217826128005981445e-01,-4.532190859317779541e-01,-5.208094120025634766e-01,5.370355844497680664e-01,-6.723942756652832031e-01,4.835403859615325928e-01,-3.565166890621185303e-01,-4.906627535820007324e-01,5.628593564033508301e-01,5.741313099861145020e-01
-6.776195019483566284e-02,-1.368937045335769653e-01,-2.232408337295055389e-02,1.554614752531051636e-01,-1.190301850438117981e-01,1.814650446176528931e-01,-6.029841955751180649e-03,6.451912224292755127e-02,8.975879848003387451e-02,1.020762696862220764e-01
2.446042150259017944e-01,-6.450103223323822021e-02,9.135784953832626343e-02,-1.023722365498542786e-01,8.805446326732635498e-02,-1.972123794257640839e-02,1.556391566991806030e-01,1.387935429811477661e-01,8.518245886079967022e-04,8.157777041196823120e-02
6.815640926361083984e-01,6.334686279296875000e-01,6.693977713584899902e-01,-5.600612759590148926e-01,7.210404872894287109e-01,-6.174649596214294434e-01,4.501698315143585205e-01,5.461857914924621582e-01,-7.183961868286132812e-01,-7.133235335350036621e-01
-1.279178708791732788e-01,-1.197012513875961304e-01,-1.312808245420455933e-01,-6.354516744613647461e-02,1.328192204236984253e-01,-1.378635615110397339e-01,-3.408978506922721863e-02,-1.650201082229614258e-01,-1.855745352804660797e-02,1.029300242662429810e-01
-4.233489930629730225e-01,-2.994718551635742188e-01,-2.973556220531463623e-01,4.229821860790252686e-01,-3.503170311450958252e-01,5.038754940032958984e-01,-4.586052894592285156e-01,-2.512001693248748779e-01,3.536632657051086426e-01,3.471035957336425781e-01
-2.796074151992797852e-01,-4.541314840316772461e-01,-1.992902010679244995e-01,4.510211050510406494e-01,-3.766743838787078857e-01,4.525227248668670654e-01,-3.184734284877777100e-01,-2.534331381320953369e-01,3.924662172794342041e-01,2.798923850059509277e-01
-4.609805531799793243e-03,-1.223865449428558350e-01,-6.315581500530242920e-02,-9.178202599287033081e-02,9.913359582424163818e-02,-1.860097497701644897e-01,-5.582603812217712402e-02,1.306147426366806030e-01,-5.958246812224388123e-02,-4.517690092325210571e-02
3.983919918537139893e-01,4.855957925319671631e-01,3.895204663276672363e-01,-5.426752567291259766e-01,4.750071763992309570e-01,-4.301549792289733887e-01,4.674835503101348877e-01,5.023444890975952148e-01,-5.225182771682739258e-01,-3.621137142181396484e-01
3.428903818130493164e-01,4.813259840011596680e-01,2.531394958496093750e-01,-4.336071908473968506e-01,4.680339992046356201e-01,-2.030866444110870361e-01,3.671838045120239258e-01,4.854643642902374268e-01,-3.481931686401367188e-01,-4.268063008785247803e-01
2.454184591770172119e-01,1.350062042474746704e-01,2.124643325805664062e-01,-1.286935508251190186e-01,-3.415004815906286240e-03,-6.904038041830062866e-02,7.703214883804321289e-03,2.454970777034759521e-01,-2.052164375782012939e-01,-1.627144217491149902e-01
-4.697503149509429932e-01,-1.642899215221405029e-01,-1.441063284873962402e-01,2.128583639860153198e-01,-3.876009285449981689e-01,2.467091530561447144e-01,-5.151713490486145020e-01,-3.593648672103881836e-01,2.250172346830368042e-01,3.718596100807189941e-01
1.336648911237716675e-01,2.194246053695678711e-01,6.371297687292098999e-02,-1.240205019712448120e-01,-1.438257633708417416e-03,-4.320763424038887024e-02,2.886838465929031372e-02,-5.679053813219070435e-02,-2.046565525233745575e-02,-1.708323806524276733e-01
-1.087070941925048828e+00,-8.325160145759582520e-01,-8.712869882583618164e-01,9.573283791542053223e-01,-1.056532144546508789e+00,1.000513553619384766e+00,-8.581216931343078613e-01,-9.067885279655456543e-01,1.019842386245727539e+00,1.018047213554382324e+00
1.005170345306396484e+00,7.147489190101623535e-01,7.310636043548583984e-01,-9.737741351127624512e-01,1.054561376571655273e+00,-8.858313560485839844e-01,7.692320942878723145e-01,7.621415853500366211e-01,-7.174866795539855957e-01,-7.235007286071777344e-01
3.584093749523162842e-01,3.933587074279785156e-01,3.439902365207672119e-01,-6.179842352867126465e-01,3.221093714237213135e-01,-3.028865158557891846e-01,4.111130237579345703e-01,4.737172722816467285e-01,-4.656823575496673584e-01,-3.738184571266174316e-01
1.831662803888320923e-01,7.881814241409301758e-02,6.832802202552556992e-03,-9.007845073938369751e-02,7.434634119272232056e-02,8.006020635366439819e-02,1.533914953470230103e-01,1.355035305023193359e-01,-4.793789237737655640e-02,-1.042382270097732544e-01
-2.142908424139022827e-01,-2.742299437522888184e-01,-3.368618786334991455e-01,3.283211588859558105e-01,-3.313201069831848145e-01,3.488000333309173584e-01,-1.466712355613708496e-01,-2.762243747711181641e-01,3.886391222476959229e-01,1.603861302137374878e-01
3.555667400360107422e-01,3.996165394783020020e-01,2.387424260377883911e-01,-4.861960709095001221e-01,3.416843712329864502e-01,-3.310190439224243164e-01,4.007873535156250000e-01,4.576742649078369141e-01,-4.441187083721160889e-01,-3.863911032676696777e-01
-6.120602488517761230e-01,-5.566993951797485352e-01,-5.854325890541076660e-01,6.421585083007812500e-01,-6.255922913551330566e-01,5.984274148941040039e-01,-4.647112190723419189e-01,-5.792313218116760254e-01,5.671960711479187012e-01,6.556135416030883789e-01
-7.178784608840942383e-01,-6.108596324920654297e-01,-6.534834504127502441e-01,5.898880362510681152e-01,-6.930666565895080566e-01,6.664879322052001953e-01,-5.789377093315124512e-01,-6.391566991806030273e-01,6.599102616310119629e-01,5.663112998008728027e-01
-1.835086941719055176e-01,-2.300641834735870361e-01,-3.132452368736267090e-01,2.718652188777923584e-01,-1.953210830688476562e-01,2.722453176975250244e-01,-2.337870150804519653e-01,-5.726259201765060425e-02,2.926995456218719482e-01,2.409325540065765381e-01
1.530715465545654297e+00,1.357673406600952148e+00,1.309169530868530273e+00,-1.241614341735839844e+00,1.520204067230224609e+00,-1.453909635543823242e+00,1.533830165863037109e+00,1.435492396354675293e+00,-1.328153371810913086e+00,-1.383474707603454590e+00
-9.113211631774902344e-01,-1.050382137298583984e+00,-9.870234727859497070e-01,1.037323594093322754e+00,-9.264488220214843750e-01,9.450906515121459961e-01,-8.262041807174682617e-01,-8.716446757316589355e-01,1.015292286872863770e+00,8.004269003868103027e-01
7.109991461038589478e-02,-6.017275154590606689e-03,-6.390085816383361816e-02,1.611402332782745361e-01,-2.348001748323440552e-01,1.337722390890121460e-01,8.614593744277954102e-02,1.060962378978729248e-01,1.260213404893875122e-01,7.537120580673217773e-02
-3.475669324398040771e-01,-2.342634797096252441e-01,-3.398314714431762695e-01,2.118618339300155640e-01,-1.924534738063812256e-01,3.292308747768402100e-01,-1.627684235572814941e-01,-1.557904034852981567e-01,2.280405312776565552e-01,2.131831049919128418e-01
-6.371884942054748535e-01,-5.027046799659729004e-01,-5.839929580688476562e-01,5.833312273025512695e-01,-4.553707540035247803e-01,5.244150161743164062e-01,-4.180005490779876709e-01,-4.445279538631439209e-01,4.772064089775085449e-01,4.946908652782440186e-01
4.738089442253112793e-01,3.408897817134857178e-01,4.594024419784545898e-01,-5.679402947425842285e-01,4.926560223102569580e-01,-4.703318178653717041e-01,4.160399734973907471e-01,3.775645494461059570e-01,-5.127854347229003906e-01,-3.407001495361328125e-01
-8.261682987213134766e-01,-8.987648487091064453e-01,-8.695226311683654785e-01,1.040113568305969238e+00,-9.449693560600280762e-01,1.013673663139343262e+00,-6.597071886062622070e-01,-8.127858042716979980e-01,8.768890500068664551e-01,7.361646294593811035e-01
2.059626281261444092e-01,2.036210447549819946e-01,2.868867814540863037e-01,-1.163919121026992798e-01,1.746820360422134399e-01,-9.346049278974533081e-02,1.414075344800949097e-01,-8.825426921248435974e-03,-1.937066167593002319e-01,-2.231319248676300049e-01
7.780604809522628784e-02,1.875564157962799072e-01,3.011208772659301758e-01,-2.059535682201385498e-01,1.433206945657730103e-01,-1.097928434610366821e-01,1.013322994112968445e-01,8.085204660892486572e-02,-1.793108284473419189e-01,-2.024224698543548584e-01
-8.945403695106506348e-01,-7.331394553184509277e-01,-6.264836192131042480e-01,8.568824529647827148e-01,-8.812509775161743164e-01,8.346333503723144531e-01,-7.585316896438598633e-01,-6.771120429039001465e-01,7.728805541992187500e-01,7.398700118064880371e-01
4.934446886181831360e-02,2.942477725446224213e-02,1.304994989186525345e-02,4.526266455650329590e-02,6.604374945163726807e-02,-7.715846598148345947e-02,2.820676192641258240e-02,-2.055902592837810516e-02,3.724276646971702576e-02,1.054817065596580505e-02
2.029743045568466187e-01,2.439185678958892822e-01,1.643698811531066895e-01,-1.916831582784652710e-01,2.398803383111953735e-01,-1.354743540287017822e-01,2.493641227483749390e-01,2.967135608196258545e-01,-2.669437825679779053e-01,-1.935656964778900146e-01
-1.205774992704391479e-01,-4.034775495529174805e-02,4.601071774959564209e-02,-3.528543980792164803e-03,-2.224295586347579956e-02,-8.984807878732681274e-02,7.308521121740341187e-02,-1.074550002813339233e-01,5.367767810821533203e-02,2.791130915284156799e-02
3.214168250560760498e-01,4.983134865760803223e-01,3.118777275085449219e-01,-2.761220932006835938e-01,3.912409245967864990e-01,-2.935209572315216064e-01,4.676252901554107666e-01,3.972289264202117920e-01,-2.951457202434539795e-01,-4.611704349517822266e-01
-4.857307374477386475e-01,-2.893704473972320557e-01,-4.822174310684204102e-01,4.962804019451141357e-01,-3.768834471702575684e-01,3.958817720413208008e-01,-3.200701773166656494e-01,-3.350519239902496338e-01,3.378432691097259521e-01,3.055648803710937500e-01
5.760284140706062317e-02,2.588818222284317017e-02,3.623915836215019226e-02,2.633757330477237701e-02,-1.908400910906493664e-03,3.675355389714241028e-02,-9.054497629404067993e-02,7.015740871429443359e-02,1.211484819650650024e-01,-1.067150160670280457e-01
-1.196751236915588379e+00,-9.145950078964233398e-01,-9.937344789505004883e-01,1.144048333168029785e+00,-1.050061225891113281e+00,1.057279348373413086e+00,-8.388032913208007812e-01,-6.830753684043884277e-01,9.806079268455505371e-01,9.581951498985290527e-01
